<?xml version="1.0"?>
<opencv_storage>
<cascade>
  <stageType>BOOST</stageType>
  <featureType>HAAR</featureType>
  <height>15</height>
  <width>40</width>
  <stageParams>
    <boostType>GAB</boostType>
    <minHitRate>9.9500000476837158e-01</minHitRate>
    <maxFalseAlarm>5.0000000000000000e-01</maxFalseAlarm>
    <weightTrimRate>9.4999999999999996e-01</weightTrimRate>
    <maxDepth>1</maxDepth>
    <maxWeakCount>100</maxWeakCount></stageParams>
  <featureParams>
    <maxCatCount>0</maxCatCount>
    <featSize>1</featSize>
    <mode>BASIC</mode></featureParams>
  <stageNum>8</stageNum>
  <stages>
    <!-- stage 0 -->
    <_>
      <maxWeakCount>2</maxWeakCount>
      <stageThreshold>-1.0406416654586792e-01</stageThreshold>
      <weakClassifiers>
        <_>
          <internalNodes>
            0 -1 5 3.4677028656005859e-02</internalNodes>
          <leafValues>
            -9.2156863212585449e-01 8.5714286565780640e-01</leafValues></_>
        <_>
          <internalNodes>
            0 -1 0 4.8393802717328072e-03</internalNodes>
          <leafValues>
            -9.4077157974243164e-01 8.1750446557998657e-01</leafValues></_></weakClassifiers></_>
    <!-- stage 1 -->
    <_>
      <maxWeakCount>2</maxWeakCount>
      <stageThreshold>-2.6906420316663571e-05</stageThreshold>
      <weakClassifiers>
        <_>
          <internalNodes>
            0 -1 4 1.5652535855770111e-01</internalNodes>
          <leafValues>
            -8.5185188055038452e-01 1.</leafValues></_>
        <_>
          <internalNodes>
            0 -1 13 -6.6072113811969757e-02</internalNodes>
          <leafValues>
            8.5182493925094604e-01 -7.6252621412277222e-01</leafValues></_></weakClassifiers></_>
    <!-- stage 2 -->
    <_>
      <maxWeakCount>2</maxWeakCount>
      <stageThreshold>-1.9842749834060669e-01</stageThreshold>
      <weakClassifiers>
        <_>
          <internalNodes>
            0 -1 12 -3.2562213018536568e-03</internalNodes>
          <leafValues>
            4.6666666865348816e-01 -8.3999997377395630e-01</leafValues></_>
        <_>
          <internalNodes>
            0 -1 20 -3.2588213682174683e-02</internalNodes>
          <leafValues>
            7.9181075096130371e-01 -6.6509413719177246e-01</leafValues></_></weakClassifiers></_>
    <!-- stage 3 -->
    <_>
      <maxWeakCount>3</maxWeakCount>
      <stageThreshold>-7.7227294445037842e-01</stageThreshold>
      <weakClassifiers>
        <_>
          <internalNodes>
            0 -1 11 1.1661799252033234e-01</internalNodes>
          <leafValues>
            -7.8431373834609985e-01 3.5714286565780640e-01</leafValues></_>
        <_>
          <internalNodes>
            0 -1 18 -1.4936263673007488e-02</internalNodes>
          <leafValues>
            5.4001766443252563e-01 -6.4732331037521362e-01</leafValues></_>
        <_>
          <internalNodes>
            0 -1 16 4.0878332220017910e-03</internalNodes>
          <leafValues>
            -4.8209246993064880e-01 7.7436345815658569e-01</leafValues></_></weakClassifiers></_>
    <!-- stage 4 -->
    <_>
      <maxWeakCount>3</maxWeakCount>
      <stageThreshold>-5.4667544364929199e-01</stageThreshold>
      <weakClassifiers>
        <_>
          <internalNodes>
            0 -1 15 -6.6831102594733238e-03</internalNodes>
          <leafValues>
            8.7500000000000000e-01 -7.3684209585189819e-01</leafValues></_>
        <_>
          <internalNodes>
            0 -1 2 -1.0432520881295204e-02</internalNodes>
          <leafValues>
            8.2024425268173218e-01 -5.6016939878463745e-01</leafValues></_>
        <_>
          <internalNodes>
            0 -1 7 -1.4738461002707481e-02</internalNodes>
          <leafValues>
            7.5033611059188843e-01 -5.4192715883255005e-01</leafValues></_></weakClassifiers></_>
    <!-- stage 5 -->
    <_>
      <maxWeakCount>3</maxWeakCount>
      <stageThreshold>-6.6375851631164551e-01</stageThreshold>
      <weakClassifiers>
        <_>
          <internalNodes>
            0 -1 1 9.6155349165201187e-03</internalNodes>
          <leafValues>
            -6.7521369457244873e-01 6.9230771064758301e-01</leafValues></_>
        <_>
          <internalNodes>
            0 -1 19 -2.1802712231874466e-02</internalNodes>
          <leafValues>
            7.0138645172119141e-01 -5.5841702222824097e-01</leafValues></_>
        <_>
          <internalNodes>
            0 -1 9 6.3430395675823092e-04</internalNodes>
          <leafValues>
            -6.4329308271408081e-01 5.6987220048904419e-01</leafValues></_></weakClassifiers></_>
    <!-- stage 6 -->
    <_>
      <maxWeakCount>3</maxWeakCount>
      <stageThreshold>-8.0362355709075928e-01</stageThreshold>
      <weakClassifiers>
        <_>
          <internalNodes>
            0 -1 6 -2.0933333039283752e-01</internalNodes>
          <leafValues>
            1. -6.8067228794097900e-01</leafValues></_>
        <_>
          <internalNodes>
            0 -1 10 7.4506876990199089e-04</internalNodes>
          <leafValues>
            -6.1939883232116699e-01 5.2527290582656860e-01</leafValues></_>
        <_>
          <internalNodes>
            0 -1 17 4.0911976248025894e-04</internalNodes>
          <leafValues>
            -6.4822417497634888e-01 5.9372836351394653e-01</leafValues></_></weakClassifiers></_>
    <!-- stage 7 -->
    <_>
      <maxWeakCount>3</maxWeakCount>
      <stageThreshold>-4.8924493789672852e-01</stageThreshold>
      <weakClassifiers>
        <_>
          <internalNodes>
            0 -1 3 2.9887056350708008e-01</internalNodes>
          <leafValues>
            -6.9911503791809082e-01 5.2941179275512695e-01</leafValues></_>
        <_>
          <internalNodes>
            0 -1 8 -2.4087478220462799e-01</internalNodes>
          <leafValues>
            7.5335305929183960e-01 -4.9739661812782288e-01</leafValues></_>
        <_>
          <internalNodes>
            0 -1 14 -3.8444560021162033e-02</internalNodes>
          <leafValues>
            7.0726668834686279e-01 -4.6413445472717285e-01</leafValues></_></weakClassifiers></_></stages>
  <features>
    <_>
      <rects>
        <_>
          1 13 28 2 -1.</_>
        <_>
          1 14 28 1 2.</_></rects>
      <tilted>0</tilted></_>
    <_>
      <rects>
        <_>
          2 6 4 6 -1.</_>
        <_>
          4 6 2 6 2.</_></rects>
      <tilted>0</tilted></_>
    <_>
      <rects>
        <_>
          2 8 6 6 -1.</_>
        <_>
          5 8 3 6 2.</_></rects>
      <tilted>0</tilted></_>
    <_>
      <rects>
        <_>
          4 0 17 12 -1.</_>
        <_>
          4 4 17 4 3.</_></rects>
      <tilted>0</tilted></_>
    <_>
      <rects>
        <_>
          5 3 24 9 -1.</_>
        <_>
          5 6 24 3 3.</_></rects>
      <tilted>0</tilted></_>
    <_>
      <rects>
        <_>
          7 4 17 6 -1.</_>
        <_>
          7 6 17 2 3.</_></rects>
      <tilted>0</tilted></_>
    <_>
      <rects>
        <_>
          11 5 15 8 -1.</_>
        <_>
          11 9 15 4 2.</_></rects>
      <tilted>0</tilted></_>
    <_>
      <rects>
        <_>
          11 6 24 4 -1.</_>
        <_>
          19 6 8 4 3.</_></rects>
      <tilted>0</tilted></_>
    <_>
      <rects>
        <_>
          14 0 22 12 -1.</_>
        <_>
          14 6 22 6 2.</_></rects>
      <tilted>0</tilted></_>
    <_>
      <rects>
        <_>
          14 8 6 2 -1.</_>
        <_>
          17 8 3 2 2.</_></rects>
      <tilted>0</tilted></_>
    <_>
      <rects>
        <_>
          14 11 6 1 -1.</_>
        <_>
          17 11 3 1 2.</_></rects>
      <tilted>0</tilted></_>
    <_>
      <rects>
        <_>
          15 1 6 12 -1.</_>
        <_>
          15 5 6 4 3.</_></rects>
      <tilted>0</tilted></_>
    <_>
      <rects>
        <_>
          17 10 4 2 -1.</_>
        <_>
          17 11 4 1 2.</_></rects>
      <tilted>0</tilted></_>
    <_>
      <rects>
        <_>
          18 6 8 9 -1.</_>
        <_>
          18 9 8 3 3.</_></rects>
      <tilted>0</tilted></_>
    <_>
      <rects>
        <_>
          21 6 3 8 -1.</_>
        <_>
          21 10 3 4 2.</_></rects>
      <tilted>0</tilted></_>
    <_>
      <rects>
        <_>
          21 11 7 2 -1.</_>
        <_>
          21 12 7 1 2.</_></rects>
      <tilted>0</tilted></_>
    <_>
      <rects>
        <_>
          22 8 4 4 -1.</_>
        <_>
          24 8 2 4 2.</_></rects>
      <tilted>0</tilted></_>
    <_>
      <rects>
        <_>
          28 2 2 10 -1.</_>
        <_>
          28 2 1 5 2.</_>
        <_>
          29 7 1 5 2.</_></rects>
      <tilted>0</tilted></_>
    <_>
      <rects>
        <_>
          28 2 2 10 -1.</_>
        <_>
          28 7 2 5 2.</_></rects>
      <tilted>0</tilted></_>
    <_>
      <rects>
        <_>
          29 9 8 6 -1.</_>
        <_>
          29 11 8 2 3.</_></rects>
      <tilted>0</tilted></_>
    <_>
      <rects>
        <_>
          36 4 4 9 -1.</_>
        <_>
          36 7 4 3 3.</_></rects>
      <tilted>0</tilted></_></features></cascade>
</opencv_storage>
