<?xml version="1.0"?>
<opencv_storage>
<cascade>
  <stageType>BOOST</stageType>
  <featureType>HAAR</featureType>
  <height>15</height>
  <width>15</width>
  <stageParams>
    <boostType>GAB</boostType>
    <minHitRate>9.9500000476837158e-01</minHitRate>
    <maxFalseAlarm>5.0000000000000000e-01</maxFalseAlarm>
    <weightTrimRate>9.4999999999999996e-01</weightTrimRate>
    <maxDepth>1</maxDepth>
    <maxWeakCount>100</maxWeakCount></stageParams>
  <featureParams>
    <maxCatCount>0</maxCatCount>
    <featSize>1</featSize>
    <mode>BASIC</mode></featureParams>
  <stageNum>12</stageNum>
  <stages>
    <!-- stage 0 -->
    <_>
      <maxWeakCount>5</maxWeakCount>
      <stageThreshold>-9.5387047529220581e-01</stageThreshold>
      <weakClassifiers>
        <_>
          <internalNodes>
            0 -1 7 4.6880269050598145e-01</internalNodes>
          <leafValues>
            -6.2622952461242676e-01 8.8571429252624512e-01</leafValues></_>
        <_>
          <internalNodes>
            0 -1 74 5.9711303561925888e-02</internalNodes>
          <leafValues>
            -4.3416315317153931e-01 7.0426839590072632e-01</leafValues></_>
        <_>
          <internalNodes>
            0 -1 41 2.5620497763156891e-02</internalNodes>
          <leafValues>
            -3.5062143206596375e-01 6.5218716859817505e-01</leafValues></_>
        <_>
          <internalNodes>
            0 -1 29 -1.6305245459079742e-01</internalNodes>
          <leafValues>
            -1. 2.4553516507148743e-01</leafValues></_>
        <_>
          <internalNodes>
            0 -1 9 1.0552275180816650e-01</internalNodes>
          <leafValues>
            2.1160843968391418e-01 -1.</leafValues></_></weakClassifiers></_>
    <!-- stage 1 -->
    <_>
      <maxWeakCount>6</maxWeakCount>
      <stageThreshold>-1.1948679685592651e+00</stageThreshold>
      <weakClassifiers>
        <_>
          <internalNodes>
            0 -1 10 1.4056774973869324e-01</internalNodes>
          <leafValues>
            -6.0912054777145386e-01 8.1818181276321411e-01</leafValues></_>
        <_>
          <internalNodes>
            0 -1 12 -2.8812592849135399e-02</internalNodes>
          <leafValues>
            5.3535795211791992e-01 -5.7886809110641479e-01</leafValues></_>
        <_>
          <internalNodes>
            0 -1 32 -3.1449154019355774e-02</internalNodes>
          <leafValues>
            8.1002998352050781e-01 -1.8401470780372620e-01</leafValues></_>
        <_>
          <internalNodes>
            0 -1 50 2.6958748698234558e-02</internalNodes>
          <leafValues>
            -2.4307234585285187e-01 6.4285451173782349e-01</leafValues></_>
        <_>
          <internalNodes>
            0 -1 15 -2.1869193762540817e-02</internalNodes>
          <leafValues>
            5.3158712387084961e-01 -3.3790397644042969e-01</leafValues></_>
        <_>
          <internalNodes>
            0 -1 49 3.4031090326607227e-03</internalNodes>
          <leafValues>
            -3.5611435770988464e-01 5.3138172626495361e-01</leafValues></_></weakClassifiers></_>
    <!-- stage 2 -->
    <_>
      <maxWeakCount>4</maxWeakCount>
      <stageThreshold>-9.5238393545150757e-01</stageThreshold>
      <weakClassifiers>
        <_>
          <internalNodes>
            0 -1 46 1.0066576302051544e-02</internalNodes>
          <leafValues>
            -6.7883211374282837e-01 3.9393940567970276e-01</leafValues></_>
        <_>
          <internalNodes>
            0 -1 39 7.6899798586964607e-03</internalNodes>
          <leafValues>
            -4.2242509126663208e-01 5.8648306131362915e-01</leafValues></_>
        <_>
          <internalNodes>
            0 -1 52 7.9673305153846741e-03</internalNodes>
          <leafValues>
            -2.9181054234504700e-01 7.7672773599624634e-01</leafValues></_>
        <_>
          <internalNodes>
            0 -1 67 1.3565028784796596e-03</internalNodes>
          <leafValues>
            -4.2295023798942566e-01 4.4068384170532227e-01</leafValues></_></weakClassifiers></_>
    <!-- stage 3 -->
    <_>
      <maxWeakCount>8</maxWeakCount>
      <stageThreshold>-9.1159224510192871e-01</stageThreshold>
      <weakClassifiers>
        <_>
          <internalNodes>
            0 -1 20 3.8963687419891357e-01</internalNodes>
          <leafValues>
            -6.0402685403823853e-01 4.7619047760963440e-01</leafValues></_>
        <_>
          <internalNodes>
            0 -1 2 -4.9647381901741028e-01</internalNodes>
          <leafValues>
            7.7500969171524048e-01 -3.5598880052566528e-01</leafValues></_>
        <_>
          <internalNodes>
            0 -1 1 1.2726165354251862e-02</internalNodes>
          <leafValues>
            2.7783995866775513e-01 -6.2393802404403687e-01</leafValues></_>
        <_>
          <internalNodes>
            0 -1 65 -3.5004196688532829e-03</internalNodes>
          <leafValues>
            4.4700327515602112e-01 -3.8443440198898315e-01</leafValues></_>
        <_>
          <internalNodes>
            0 -1 64 4.2982562445104122e-03</internalNodes>
          <leafValues>
            -2.2624097764492035e-01 6.4417028427124023e-01</leafValues></_>
        <_>
          <internalNodes>
            0 -1 54 -5.1430282182991505e-03</internalNodes>
          <leafValues>
            -9.5886236429214478e-01 2.1847952902317047e-01</leafValues></_>
        <_>
          <internalNodes>
            0 -1 55 -9.9877100437879562e-03</internalNodes>
          <leafValues>
            7.1335488557815552e-01 -2.4034857749938965e-01</leafValues></_>
        <_>
          <internalNodes>
            0 -1 38 1.7558797262609005e-03</internalNodes>
          <leafValues>
            -3.6426824331283569e-01 4.7346821427345276e-01</leafValues></_></weakClassifiers></_>
    <!-- stage 4 -->
    <_>
      <maxWeakCount>6</maxWeakCount>
      <stageThreshold>-6.8479585647583008e-01</stageThreshold>
      <weakClassifiers>
        <_>
          <internalNodes>
            0 -1 75 7.2622150182723999e-02</internalNodes>
          <leafValues>
            -6.3194441795349121e-01 4.2307692766189575e-01</leafValues></_>
        <_>
          <internalNodes>
            0 -1 6 9.6955135464668274e-02</internalNodes>
          <leafValues>
            -3.9592331647872925e-01 6.5481001138687134e-01</leafValues></_>
        <_>
          <internalNodes>
            0 -1 8 -6.1336718499660492e-03</internalNodes>
          <leafValues>
            -8.0607485771179199e-01 2.2555801272392273e-01</leafValues></_>
        <_>
          <internalNodes>
            0 -1 76 3.9808726869523525e-03</internalNodes>
          <leafValues>
            1.2305326014757156e-01 -1.</leafValues></_>
        <_>
          <internalNodes>
            0 -1 33 8.2439314574003220e-03</internalNodes>
          <leafValues>
            -3.2831013202667236e-01 4.8797535896301270e-01</leafValues></_>
        <_>
          <internalNodes>
            0 -1 48 7.7348984777927399e-03</internalNodes>
          <leafValues>
            -3.2523658871650696e-01 5.3811812400817871e-01</leafValues></_></weakClassifiers></_>
    <!-- stage 5 -->
    <_>
      <maxWeakCount>7</maxWeakCount>
      <stageThreshold>-9.8082536458969116e-01</stageThreshold>
      <weakClassifiers>
        <_>
          <internalNodes>
            0 -1 53 -2.2427621483802795e-01</internalNodes>
          <leafValues>
            6.8750000000000000e-01 -5.9090906381607056e-01</leafValues></_>
        <_>
          <internalNodes>
            0 -1 62 1.2326139211654663e-01</internalNodes>
          <leafValues>
            -4.5490559935569763e-01 6.1477786302566528e-01</leafValues></_>
        <_>
          <internalNodes>
            0 -1 36 5.8329922467237338e-05</internalNodes>
          <leafValues>
            -3.4585401415824890e-01 4.5952743291854858e-01</leafValues></_>
        <_>
          <internalNodes>
            0 -1 11 1.9465880468487740e-03</internalNodes>
          <leafValues>
            2.5037792325019836e-01 -7.2244000434875488e-01</leafValues></_>
        <_>
          <internalNodes>
            0 -1 18 -5.8090561651624739e-05</internalNodes>
          <leafValues>
            5.6496924161911011e-01 -3.5463368892669678e-01</leafValues></_>
        <_>
          <internalNodes>
            0 -1 42 8.7442102085333318e-05</internalNodes>
          <leafValues>
            -4.4156181812286377e-01 4.6502408385276794e-01</leafValues></_>
        <_>
          <internalNodes>
            0 -1 23 2.5289950426667929e-03</internalNodes>
          <leafValues>
            2.1751147508621216e-01 -7.9205316305160522e-01</leafValues></_></weakClassifiers></_>
    <!-- stage 6 -->
    <_>
      <maxWeakCount>7</maxWeakCount>
      <stageThreshold>-9.4162315130233765e-01</stageThreshold>
      <weakClassifiers>
        <_>
          <internalNodes>
            0 -1 5 5.5697369575500488e-01</internalNodes>
          <leafValues>
            -5.9722220897674561e-01 2.3076923191547394e-01</leafValues></_>
        <_>
          <internalNodes>
            0 -1 27 -7.0418775081634521e-02</internalNodes>
          <leafValues>
            6.3262498378753662e-01 -2.9297292232513428e-01</leafValues></_>
        <_>
          <internalNodes>
            0 -1 59 -1.0849461890757084e-02</internalNodes>
          <leafValues>
            -7.8203999996185303e-01 2.0194014906883240e-01</leafValues></_>
        <_>
          <internalNodes>
            0 -1 40 3.3366069197654724e-02</internalNodes>
          <leafValues>
            -3.4249716997146606e-01 4.8727905750274658e-01</leafValues></_>
        <_>
          <internalNodes>
            0 -1 19 1.0432365350425243e-02</internalNodes>
          <leafValues>
            2.1549431979656219e-01 -7.3456579446792603e-01</leafValues></_>
        <_>
          <internalNodes>
            0 -1 44 1.3476077467203140e-02</internalNodes>
          <leafValues>
            -1.7295336723327637e-01 7.9144304990768433e-01</leafValues></_>
        <_>
          <internalNodes>
            0 -1 35 4.0171205997467041e-02</internalNodes>
          <leafValues>
            1.6865669190883636e-01 -8.8048338890075684e-01</leafValues></_></weakClassifiers></_>
    <!-- stage 7 -->
    <_>
      <maxWeakCount>8</maxWeakCount>
      <stageThreshold>-9.8220795392990112e-01</stageThreshold>
      <weakClassifiers>
        <_>
          <internalNodes>
            0 -1 34 3.4219954162836075e-02</internalNodes>
          <leafValues>
            -6.1481481790542603e-01 8.5714288055896759e-02</leafValues></_>
        <_>
          <internalNodes>
            0 -1 30 -1.0416844487190247e-01</internalNodes>
          <leafValues>
            6.5024435520172119e-01 -2.9228997230529785e-01</leafValues></_>
        <_>
          <internalNodes>
            0 -1 66 -1.6198998317122459e-02</internalNodes>
          <leafValues>
            -4.3451353907585144e-01 2.6896089315414429e-01</leafValues></_>
        <_>
          <internalNodes>
            0 -1 57 1.1391950771212578e-02</internalNodes>
          <leafValues>
            -2.1969851851463318e-01 5.3128898143768311e-01</leafValues></_>
        <_>
          <internalNodes>
            0 -1 0 -2.3213120177388191e-02</internalNodes>
          <leafValues>
            -6.8960666656494141e-01 1.7680422961711884e-01</leafValues></_>
        <_>
          <internalNodes>
            0 -1 60 4.2088571935892105e-03</internalNodes>
          <leafValues>
            1.7937967181205750e-01 -7.0252043008804321e-01</leafValues></_>
        <_>
          <internalNodes>
            0 -1 16 -1.7665971536189318e-03</internalNodes>
          <leafValues>
            3.7302580475807190e-01 -3.1985706090927124e-01</leafValues></_>
        <_>
          <internalNodes>
            0 -1 26 2.5990880094468594e-03</internalNodes>
          <leafValues>
            1.6914016008377075e-01 -7.3520654439926147e-01</leafValues></_></weakClassifiers></_>
    <!-- stage 8 -->
    <_>
      <maxWeakCount>9</maxWeakCount>
      <stageThreshold>-9.8779708147048950e-01</stageThreshold>
      <weakClassifiers>
        <_>
          <internalNodes>
            0 -1 28 1.5080416575074196e-02</internalNodes>
          <leafValues>
            -6.0269361734390259e-01 4.4186046719551086e-01</leafValues></_>
        <_>
          <internalNodes>
            0 -1 78 1.2862964649684727e-04</internalNodes>
          <leafValues>
            -4.8588398098945618e-01 2.8146702051162720e-01</leafValues></_>
        <_>
          <internalNodes>
            0 -1 46 1.0063581168651581e-02</internalNodes>
          <leafValues>
            -3.0712515115737915e-01 4.5436316728591919e-01</leafValues></_>
        <_>
          <internalNodes>
            0 -1 47 -9.7157489508390427e-03</internalNodes>
          <leafValues>
            6.2212508916854858e-01 -2.4143561720848083e-01</leafValues></_>
        <_>
          <internalNodes>
            0 -1 17 1.4368838630616665e-02</internalNodes>
          <leafValues>
            -2.5378000736236572e-01 4.4246858358383179e-01</leafValues></_>
        <_>
          <internalNodes>
            0 -1 51 8.4239309653639793e-03</internalNodes>
          <leafValues>
            -2.5900930166244507e-01 5.2190035581588745e-01</leafValues></_>
        <_>
          <internalNodes>
            0 -1 79 -1.4384828973561525e-03</internalNodes>
          <leafValues>
            -5.8662551641464233e-01 3.2617318630218506e-01</leafValues></_>
        <_>
          <internalNodes>
            0 -1 43 -2.7832193300127983e-03</internalNodes>
          <leafValues>
            5.1895618438720703e-01 -2.9503050446510315e-01</leafValues></_>
        <_>
          <internalNodes>
            0 -1 56 6.7003564909100533e-03</internalNodes>
          <leafValues>
            -2.8337362408638000e-01 6.0268884897232056e-01</leafValues></_></weakClassifiers></_>
    <!-- stage 9 -->
    <_>
      <maxWeakCount>7</maxWeakCount>
      <stageThreshold>-8.8445341587066650e-01</stageThreshold>
      <weakClassifiers>
        <_>
          <internalNodes>
            0 -1 24 -1.1457279324531555e-01</internalNodes>
          <leafValues>
            4.1176471114158630e-01 -5.6862747669219971e-01</leafValues></_>
        <_>
          <internalNodes>
            0 -1 45 -3.4633785486221313e-02</internalNodes>
          <leafValues>
            6.9636887311935425e-01 -2.0835965871810913e-01</leafValues></_>
        <_>
          <internalNodes>
            0 -1 68 -1.9064914435148239e-02</internalNodes>
          <leafValues>
            -7.1779978275299072e-01 1.8850328028202057e-01</leafValues></_>
        <_>
          <internalNodes>
            0 -1 70 3.4708920866250992e-03</internalNodes>
          <leafValues>
            1.1793716251850128e-01 -8.7655174732208252e-01</leafValues></_>
        <_>
          <internalNodes>
            0 -1 58 5.2423693239688873e-02</internalNodes>
          <leafValues>
            -1.6575509309768677e-01 8.0686151981353760e-01</leafValues></_>
        <_>
          <internalNodes>
            0 -1 61 7.9939533025026321e-03</internalNodes>
          <leafValues>
            2.6063790917396545e-01 -7.4462789297103882e-01</leafValues></_>
        <_>
          <internalNodes>
            0 -1 37 -5.4581575095653534e-03</internalNodes>
          <leafValues>
            3.9751353859901428e-01 -3.3863171935081482e-01</leafValues></_></weakClassifiers></_>
    <!-- stage 10 -->
    <_>
      <maxWeakCount>7</maxWeakCount>
      <stageThreshold>-7.7700960636138916e-01</stageThreshold>
      <weakClassifiers>
        <_>
          <internalNodes>
            0 -1 73 -9.8054260015487671e-02</internalNodes>
          <leafValues>
            7.5000000000000000e-01 -5.3086417913436890e-01</leafValues></_>
        <_>
          <internalNodes>
            0 -1 71 -2.7127042994834483e-04</internalNodes>
          <leafValues>
            2.1963386237621307e-01 -5.1421290636062622e-01</leafValues></_>
        <_>
          <internalNodes>
            0 -1 63 -8.3518810570240021e-03</internalNodes>
          <leafValues>
            -6.7276930809020996e-01 2.0951530337333679e-01</leafValues></_>
        <_>
          <internalNodes>
            0 -1 13 -2.3511936888098717e-03</internalNodes>
          <leafValues>
            -7.9202449321746826e-01 1.5167501568794250e-01</leafValues></_>
        <_>
          <internalNodes>
            0 -1 25 2.8767844662070274e-02</internalNodes>
          <leafValues>
            -1.7411136627197266e-01 7.0896315574645996e-01</leafValues></_>
        <_>
          <internalNodes>
            0 -1 22 -1.0159899294376373e-01</internalNodes>
          <leafValues>
            -7.9972589015960693e-01 1.6966800391674042e-01</leafValues></_>
        <_>
          <internalNodes>
            0 -1 21 5.3843714296817780e-02</internalNodes>
          <leafValues>
            1.4686766266822815e-01 -7.3805189132690430e-01</leafValues></_></weakClassifiers></_>
    <!-- stage 11 -->
    <_>
      <maxWeakCount>7</maxWeakCount>
      <stageThreshold>-8.7734854221343994e-01</stageThreshold>
      <weakClassifiers>
        <_>
          <internalNodes>
            0 -1 72 -1.7431765794754028e-02</internalNodes>
          <leafValues>
            3.1999999284744263e-01 -6.0689657926559448e-01</leafValues></_>
        <_>
          <internalNodes>
            0 -1 14 -2.9561560600996017e-02</internalNodes>
          <leafValues>
            4.0321061015129089e-01 -3.2779425382614136e-01</leafValues></_>
        <_>
          <internalNodes>
            0 -1 31 6.3419397920370102e-03</internalNodes>
          <leafValues>
            1.2083166837692261e-01 -9.3274194002151489e-01</leafValues></_>
        <_>
          <internalNodes>
            0 -1 3 2.9210144653916359e-02</internalNodes>
          <leafValues>
            -2.3369698226451874e-01 4.9500504136085510e-01</leafValues></_>
        <_>
          <internalNodes>
            0 -1 69 -1.5060724690556526e-03</internalNodes>
          <leafValues>
            3.4690237045288086e-01 -3.2974892854690552e-01</leafValues></_>
        <_>
          <internalNodes>
            0 -1 4 6.7295162007212639e-03</internalNodes>
          <leafValues>
            1.6063287854194641e-01 -6.5664505958557129e-01</leafValues></_>
        <_>
          <internalNodes>
            0 -1 77 -1.1104144155979156e-02</internalNodes>
          <leafValues>
            9.2367154359817505e-01 -1.2207467108964920e-01</leafValues></_></weakClassifiers></_></stages>
  <features>
    <_>
      <rects>
        <_>
          0 0 1 15 -1.</_>
        <_>
          0 5 1 5 3.</_></rects>
      <tilted>0</tilted></_>
    <_>
      <rects>
        <_>
          0 0 2 8 -1.</_>
        <_>
          0 4 2 4 2.</_></rects>
      <tilted>0</tilted></_>
    <_>
      <rects>
        <_>
          0 0 15 15 -1.</_>
        <_>
          5 0 5 15 3.</_></rects>
      <tilted>0</tilted></_>
    <_>
      <rects>
        <_>
          0 0 11 4 -1.</_>
        <_>
          0 2 11 2 2.</_></rects>
      <tilted>0</tilted></_>
    <_>
      <rects>
        <_>
          0 1 1 9 -1.</_>
        <_>
          0 4 1 3 3.</_></rects>
      <tilted>0</tilted></_>
    <_>
      <rects>
        <_>
          0 1 15 14 -1.</_>
        <_>
          5 1 5 14 3.</_></rects>
      <tilted>0</tilted></_>
    <_>
      <rects>
        <_>
          0 2 8 7 -1.</_>
        <_>
          4 2 4 7 2.</_></rects>
      <tilted>0</tilted></_>
    <_>
      <rects>
        <_>
          0 2 15 9 -1.</_>
        <_>
          5 2 5 9 3.</_></rects>
      <tilted>0</tilted></_>
    <_>
      <rects>
        <_>
          0 3 1 6 -1.</_>
        <_>
          0 6 1 3 2.</_></rects>
      <tilted>0</tilted></_>
    <_>
      <rects>
        <_>
          0 3 15 8 -1.</_>
        <_>
          0 7 15 4 2.</_></rects>
      <tilted>0</tilted></_>
    <_>
      <rects>
        <_>
          0 4 15 2 -1.</_>
        <_>
          5 4 5 2 3.</_></rects>
      <tilted>0</tilted></_>
    <_>
      <rects>
        <_>
          0 5 1 2 -1.</_>
        <_>
          0 6 1 1 2.</_></rects>
      <tilted>0</tilted></_>
    <_>
      <rects>
        <_>
          0 7 8 2 -1.</_>
        <_>
          4 7 4 2 2.</_></rects>
      <tilted>0</tilted></_>
    <_>
      <rects>
        <_>
          1 0 2 1 -1.</_>
        <_>
          2 0 1 1 2.</_></rects>
      <tilted>0</tilted></_>
    <_>
      <rects>
        <_>
          1 0 6 4 -1.</_>
        <_>
          1 2 6 2 2.</_></rects>
      <tilted>0</tilted></_>
    <_>
      <rects>
        <_>
          1 2 6 7 -1.</_>
        <_>
          3 2 2 7 3.</_></rects>
      <tilted>0</tilted></_>
    <_>
      <rects>
        <_>
          1 4 3 5 -1.</_>
        <_>
          2 4 1 5 3.</_></rects>
      <tilted>0</tilted></_>
    <_>
      <rects>
        <_>
          1 4 13 3 -1.</_>
        <_>
          1 5 13 1 3.</_></rects>
      <tilted>0</tilted></_>
    <_>
      <rects>
        <_>
          1 6 1 2 -1.</_>
        <_>
          1 7 1 1 2.</_></rects>
      <tilted>0</tilted></_>
    <_>
      <rects>
        <_>
          1 6 1 9 -1.</_>
        <_>
          1 9 1 3 3.</_></rects>
      <tilted>0</tilted></_>
    <_>
      <rects>
        <_>
          2 2 12 12 -1.</_>
        <_>
          6 2 4 12 3.</_></rects>
      <tilted>0</tilted></_>
    <_>
      <rects>
        <_>
          2 3 13 8 -1.</_>
        <_>
          2 7 13 4 2.</_></rects>
      <tilted>0</tilted></_>
    <_>
      <rects>
        <_>
          2 4 9 6 -1.</_>
        <_>
          2 7 9 3 2.</_></rects>
      <tilted>0</tilted></_>
    <_>
      <rects>
        <_>
          2 10 3 1 -1.</_>
        <_>
          3 10 1 1 3.</_></rects>
      <tilted>0</tilted></_>
    <_>
      <rects>
        <_>
          2 11 12 3 -1.</_>
        <_>
          8 11 6 3 2.</_></rects>
      <tilted>0</tilted></_>
    <_>
      <rects>
        <_>
          2 11 7 3 -1.</_>
        <_>
          2 12 7 1 3.</_></rects>
      <tilted>0</tilted></_>
    <_>
      <rects>
        <_>
          2 13 3 1 -1.</_>
        <_>
          3 13 1 1 3.</_></rects>
      <tilted>0</tilted></_>
    <_>
      <rects>
        <_>
          3 0 10 4 -1.</_>
        <_>
          3 2 10 2 2.</_></rects>
      <tilted>0</tilted></_>
    <_>
      <rects>
        <_>
          3 3 7 2 -1.</_>
        <_>
          3 4 7 1 2.</_></rects>
      <tilted>0</tilted></_>
    <_>
      <rects>
        <_>
          3 3 12 12 -1.</_>
        <_>
          3 9 12 6 2.</_></rects>
      <tilted>0</tilted></_>
    <_>
      <rects>
        <_>
          3 8 12 3 -1.</_>
        <_>
          7 8 4 3 3.</_></rects>
      <tilted>0</tilted></_>
    <_>
      <rects>
        <_>
          3 10 2 2 -1.</_>
        <_>
          4 10 1 2 2.</_></rects>
      <tilted>0</tilted></_>
    <_>
      <rects>
        <_>
          3 10 12 3 -1.</_>
        <_>
          3 11 12 1 3.</_></rects>
      <tilted>0</tilted></_>
    <_>
      <rects>
        <_>
          3 12 5 2 -1.</_>
        <_>
          3 13 5 1 2.</_></rects>
      <tilted>0</tilted></_>
    <_>
      <rects>
        <_>
          4 0 4 6 -1.</_>
        <_>
          4 3 4 3 2.</_></rects>
      <tilted>0</tilted></_>
    <_>
      <rects>
        <_>
          4 1 2 12 -1.</_>
        <_>
          4 5 2 4 3.</_></rects>
      <tilted>0</tilted></_>
    <_>
      <rects>
        <_>
          4 3 2 1 -1.</_>
        <_>
          5 3 1 1 2.</_></rects>
      <tilted>0</tilted></_>
    <_>
      <rects>
        <_>
          4 3 5 6 -1.</_>
        <_>
          4 5 5 2 3.</_></rects>
      <tilted>0</tilted></_>
    <_>
      <rects>
        <_>
          4 5 2 3 -1.</_>
        <_>
          4 6 2 1 3.</_></rects>
      <tilted>0</tilted></_>
    <_>
      <rects>
        <_>
          4 7 5 2 -1.</_>
        <_>
          4 8 5 1 2.</_></rects>
      <tilted>0</tilted></_>
    <_>
      <rects>
        <_>
          4 7 8 6 -1.</_>
        <_>
          4 9 8 2 3.</_></rects>
      <tilted>0</tilted></_>
    <_>
      <rects>
        <_>
          4 10 5 4 -1.</_>
        <_>
          4 12 5 2 2.</_></rects>
      <tilted>0</tilted></_>
    <_>
      <rects>
        <_>
          4 12 2 2 -1.</_>
        <_>
          4 12 1 1 2.</_>
        <_>
          5 13 1 1 2.</_></rects>
      <tilted>0</tilted></_>
    <_>
      <rects>
        <_>
          4 12 2 3 -1.</_>
        <_>
          5 12 1 3 2.</_></rects>
      <tilted>0</tilted></_>
    <_>
      <rects>
        <_>
          5 6 2 3 -1.</_>
        <_>
          5 7 2 1 3.</_></rects>
      <tilted>0</tilted></_>
    <_>
      <rects>
        <_>
          5 6 6 2 -1.</_>
        <_>
          5 7 6 1 2.</_></rects>
      <tilted>0</tilted></_>
    <_>
      <rects>
        <_>
          5 8 4 3 -1.</_>
        <_>
          5 9 4 1 3.</_></rects>
      <tilted>0</tilted></_>
    <_>
      <rects>
        <_>
          5 8 6 3 -1.</_>
        <_>
          5 9 6 1 3.</_></rects>
      <tilted>0</tilted></_>
    <_>
      <rects>
        <_>
          5 11 5 3 -1.</_>
        <_>
          5 12 5 1 3.</_></rects>
      <tilted>0</tilted></_>
    <_>
      <rects>
        <_>
          5 12 2 2 -1.</_>
        <_>
          5 13 2 1 2.</_></rects>
      <tilted>0</tilted></_>
    <_>
      <rects>
        <_>
          6 1 4 6 -1.</_>
        <_>
          6 4 4 3 2.</_></rects>
      <tilted>0</tilted></_>
    <_>
      <rects>
        <_>
          6 5 4 3 -1.</_>
        <_>
          6 6 4 1 3.</_></rects>
      <tilted>0</tilted></_>
    <_>
      <rects>
        <_>
          6 6 2 3 -1.</_>
        <_>
          6 7 2 1 3.</_></rects>
      <tilted>0</tilted></_>
    <_>
      <rects>
        <_>
          7 3 8 8 -1.</_>
        <_>
          11 3 4 8 2.</_></rects>
      <tilted>0</tilted></_>
    <_>
      <rects>
        <_>
          7 5 3 2 -1.</_>
        <_>
          8 5 1 2 3.</_></rects>
      <tilted>0</tilted></_>
    <_>
      <rects>
        <_>
          7 5 2 2 -1.</_>
        <_>
          7 6 2 1 2.</_></rects>
      <tilted>0</tilted></_>
    <_>
      <rects>
        <_>
          8 1 3 3 -1.</_>
        <_>
          8 2 3 1 3.</_></rects>
      <tilted>0</tilted></_>
    <_>
      <rects>
        <_>
          8 4 3 3 -1.</_>
        <_>
          8 5 3 1 3.</_></rects>
      <tilted>0</tilted></_>
    <_>
      <rects>
        <_>
          8 4 6 3 -1.</_>
        <_>
          11 4 3 3 2.</_></rects>
      <tilted>0</tilted></_>
    <_>
      <rects>
        <_>
          8 6 3 7 -1.</_>
        <_>
          9 6 1 7 3.</_></rects>
      <tilted>0</tilted></_>
    <_>
      <rects>
        <_>
          9 1 3 2 -1.</_>
        <_>
          10 1 1 2 3.</_></rects>
      <tilted>0</tilted></_>
    <_>
      <rects>
        <_>
          9 1 2 8 -1.</_>
        <_>
          9 1 1 4 2.</_>
        <_>
          10 5 1 4 2.</_></rects>
      <tilted>0</tilted></_>
    <_>
      <rects>
        <_>
          9 1 6 10 -1.</_>
        <_>
          12 1 3 10 2.</_></rects>
      <tilted>0</tilted></_>
    <_>
      <rects>
        <_>
          9 4 3 4 -1.</_>
        <_>
          10 4 1 4 3.</_></rects>
      <tilted>0</tilted></_>
    <_>
      <rects>
        <_>
          9 6 1 3 -1.</_>
        <_>
          9 7 1 1 3.</_></rects>
      <tilted>0</tilted></_>
    <_>
      <rects>
        <_>
          9 6 2 2 -1.</_>
        <_>
          9 7 2 1 2.</_></rects>
      <tilted>0</tilted></_>
    <_>
      <rects>
        <_>
          9 6 5 6 -1.</_>
        <_>
          9 8 5 2 3.</_></rects>
      <tilted>0</tilted></_>
    <_>
      <rects>
        <_>
          9 7 1 4 -1.</_>
        <_>
          9 9 1 2 2.</_></rects>
      <tilted>0</tilted></_>
    <_>
      <rects>
        <_>
          9 13 6 2 -1.</_>
        <_>
          11 13 2 2 3.</_></rects>
      <tilted>0</tilted></_>
    <_>
      <rects>
        <_>
          10 1 2 2 -1.</_>
        <_>
          10 2 2 1 2.</_></rects>
      <tilted>0</tilted></_>
    <_>
      <rects>
        <_>
          10 2 3 1 -1.</_>
        <_>
          11 2 1 1 3.</_></rects>
      <tilted>0</tilted></_>
    <_>
      <rects>
        <_>
          11 0 4 2 -1.</_>
        <_>
          11 1 4 1 2.</_></rects>
      <tilted>0</tilted></_>
    <_>
      <rects>
        <_>
          11 1 2 10 -1.</_>
        <_>
          12 1 1 10 2.</_></rects>
      <tilted>0</tilted></_>
    <_>
      <rects>
        <_>
          11 2 4 8 -1.</_>
        <_>
          13 2 2 8 2.</_></rects>
      <tilted>0</tilted></_>
    <_>
      <rects>
        <_>
          11 2 4 10 -1.</_>
        <_>
          13 2 2 10 2.</_></rects>
      <tilted>0</tilted></_>
    <_>
      <rects>
        <_>
          11 3 4 11 -1.</_>
        <_>
          13 3 2 11 2.</_></rects>
      <tilted>0</tilted></_>
    <_>
      <rects>
        <_>
          11 13 3 1 -1.</_>
        <_>
          12 13 1 1 3.</_></rects>
      <tilted>0</tilted></_>
    <_>
      <rects>
        <_>
          13 5 2 3 -1.</_>
        <_>
          14 5 1 3 2.</_></rects>
      <tilted>0</tilted></_>
    <_>
      <rects>
        <_>
          13 7 2 1 -1.</_>
        <_>
          14 7 1 1 2.</_></rects>
      <tilted>0</tilted></_>
    <_>
      <rects>
        <_>
          14 6 1 3 -1.</_>
        <_>
          14 7 1 1 3.</_></rects>
      <tilted>0</tilted></_></features></cascade>
</opencv_storage>
