<?xml version="1.0"?>
<opencv_storage>
<stage4>
  <maxWeakCount>6</maxWeakCount>
  <stageThreshold>-6.8479585647583008e-01</stageThreshold>
  <weakClassifiers>
    <_>
      <internalNodes>
        0 -1 23486 7.2622150182723999e-02</internalNodes>
      <leafValues>
        -6.3194441795349121e-01 4.2307692766189575e-01</leafValues></_>
    <_>
      <internalNodes>
        0 -1 945 9.6955135464668274e-02</internalNodes>
      <leafValues>
        -3.9592331647872925e-01 6.5481001138687134e-01</leafValues></_>
    <_>
      <internalNodes>
        0 -1 1150 -6.1336718499660492e-03</internalNodes>
      <leafValues>
        -8.0607485771179199e-01 2.2555801272392273e-01</leafValues></_>
    <_>
      <internalNodes>
        0 -1 23945 3.9808726869523525e-03</internalNodes>
      <leafValues>
        1.2305326014757156e-01 -1.</leafValues></_>
    <_>
      <internalNodes>
        0 -1 11459 8.2439314574003220e-03</internalNodes>
      <leafValues>
        -3.2831013202667236e-01 4.8797535896301270e-01</leafValues></_>
    <_>
      <internalNodes>
        0 -1 15811 7.7348984777927399e-03</internalNodes>
      <leafValues>
        -3.2523658871650696e-01 5.3811812400817871e-01</leafValues></_></weakClassifiers></stage4>
</opencv_storage>
