<?xml version="1.0"?>
<opencv_storage>
<stage9>
  <maxWeakCount>7</maxWeakCount>
  <stageThreshold>-8.8445341587066650e-01</stageThreshold>
  <weakClassifiers>
    <_>
      <internalNodes>
        0 -1 8768 -1.1457279324531555e-01</internalNodes>
      <leafValues>
        4.1176471114158630e-01 -5.6862747669219971e-01</leafValues></_>
    <_>
      <internalNodes>
        0 -1 15268 -3.4633785486221313e-02</internalNodes>
      <leafValues>
        6.9636887311935425e-01 -2.0835965871810913e-01</leafValues></_>
    <_>
      <internalNodes>
        0 -1 22182 -1.9064914435148239e-02</internalNodes>
      <leafValues>
        -7.1779978275299072e-01 1.8850328028202057e-01</leafValues></_>
    <_>
      <internalNodes>
        0 -1 22427 3.4708920866250992e-03</internalNodes>
      <leafValues>
        1.1793716251850128e-01 -8.7655174732208252e-01</leafValues></_>
    <_>
      <internalNodes>
        0 -1 20203 5.2423693239688873e-02</internalNodes>
      <leafValues>
        -1.6575509309768677e-01 8.0686151981353760e-01</leafValues></_>
    <_>
      <internalNodes>
        0 -1 21068 7.9939533025026321e-03</internalNodes>
      <leafValues>
        2.6063790917396545e-01 -7.4462789297103882e-01</leafValues></_>
    <_>
      <internalNodes>
        0 -1 12483 -5.4581575095653534e-03</internalNodes>
      <leafValues>
        3.9751353859901428e-01 -3.3863171935081482e-01</leafValues></_></weakClassifiers></stage9>
</opencv_storage>
