<?xml version="1.0"?>
<opencv_storage>
<stage1>
  <maxWeakCount>6</maxWeakCount>
  <stageThreshold>-1.1948679685592651e+00</stageThreshold>
  <weakClassifiers>
    <_>
      <internalNodes>
        0 -1 1622 1.4056774973869324e-01</internalNodes>
      <leafValues>
        -6.0912054777145386e-01 8.1818181276321411e-01</leafValues></_>
    <_>
      <internalNodes>
        0 -1 2361 -2.8812592849135399e-02</internalNodes>
      <leafValues>
        5.3535795211791992e-01 -5.7886809110641479e-01</leafValues></_>
    <_>
      <internalNodes>
        0 -1 11332 -3.1449154019355774e-02</internalNodes>
      <leafValues>
        8.1002998352050781e-01 -1.8401470780372620e-01</leafValues></_>
    <_>
      <internalNodes>
        0 -1 16309 2.6958748698234558e-02</internalNodes>
      <leafValues>
        -2.4307234585285187e-01 6.4285451173782349e-01</leafValues></_>
    <_>
      <internalNodes>
        0 -1 4007 -2.1869193762540817e-02</internalNodes>
      <leafValues>
        5.3158712387084961e-01 -3.3790397644042969e-01</leafValues></_>
    <_>
      <internalNodes>
        0 -1 15843 3.4031090326607227e-03</internalNodes>
      <leafValues>
        -3.5611435770988464e-01 5.3138172626495361e-01</leafValues></_></weakClassifiers></stage1>
</opencv_storage>
