<?xml version="1.0"?>
<opencv_storage>
<stage8>
  <maxWeakCount>9</maxWeakCount>
  <stageThreshold>-9.8779708147048950e-01</stageThreshold>
  <weakClassifiers>
    <_>
      <internalNodes>
        0 -1 10054 1.5080416575074196e-02</internalNodes>
      <leafValues>
        -6.0269361734390259e-01 4.4186046719551086e-01</leafValues></_>
    <_>
      <internalNodes>
        0 -1 24783 1.2862964649684727e-04</internalNodes>
      <leafValues>
        -4.8588398098945618e-01 2.8146702051162720e-01</leafValues></_>
    <_>
      <internalNodes>
        0 -1 15515 1.0063581168651581e-02</internalNodes>
      <leafValues>
        -3.0712515115737915e-01 4.5436316728591919e-01</leafValues></_>
    <_>
      <internalNodes>
        0 -1 15544 -9.7157489508390427e-03</internalNodes>
      <leafValues>
        6.2212508916854858e-01 -2.4143561720848083e-01</leafValues></_>
    <_>
      <internalNodes>
        0 -1 4828 1.4368838630616665e-02</internalNodes>
      <leafValues>
        -2.5378000736236572e-01 4.4246858358383179e-01</leafValues></_>
    <_>
      <internalNodes>
        0 -1 17060 8.4239309653639793e-03</internalNodes>
      <leafValues>
        -2.5900930166244507e-01 5.2190035581588745e-01</leafValues></_>
    <_>
      <internalNodes>
        0 -1 24945 -1.4384828973561525e-03</internalNodes>
      <leafValues>
        -5.8662551641464233e-01 3.2617318630218506e-01</leafValues></_>
    <_>
      <internalNodes>
        0 -1 13687 -2.7832193300127983e-03</internalNodes>
      <leafValues>
        5.1895618438720703e-01 -2.9503050446510315e-01</leafValues></_>
    <_>
      <internalNodes>
        0 -1 19750 6.7003564909100533e-03</internalNodes>
      <leafValues>
        -2.8337362408638000e-01 6.0268884897232056e-01</leafValues></_></weakClassifiers></stage8>
</opencv_storage>
