<?xml version="1.0"?>
<opencv_storage>
<stage5>
  <maxWeakCount>7</maxWeakCount>
  <stageThreshold>-9.8082536458969116e-01</stageThreshold>
  <weakClassifiers>
    <_>
      <internalNodes>
        0 -1 18531 -2.2427621483802795e-01</internalNodes>
      <leafValues>
        6.8750000000000000e-01 -5.9090906381607056e-01</leafValues></_>
    <_>
      <internalNodes>
        0 -1 21168 1.2326139211654663e-01</internalNodes>
      <leafValues>
        -4.5490559935569763e-01 6.1477786302566528e-01</leafValues></_>
    <_>
      <internalNodes>
        0 -1 12329 5.8329922467237338e-05</internalNodes>
      <leafValues>
        -3.4585401415824890e-01 4.5952743291854858e-01</leafValues></_>
    <_>
      <internalNodes>
        0 -1 1763 1.9465880468487740e-03</internalNodes>
      <leafValues>
        2.5037792325019836e-01 -7.2244000434875488e-01</leafValues></_>
    <_>
      <internalNodes>
        0 -1 5101 -5.8090561651624739e-05</internalNodes>
      <leafValues>
        5.6496924161911011e-01 -3.5463368892669678e-01</leafValues></_>
    <_>
      <internalNodes>
        0 -1 13684 8.7442102085333318e-05</internalNodes>
      <leafValues>
        -4.4156181812286377e-01 4.6502408385276794e-01</leafValues></_>
    <_>
      <internalNodes>
        0 -1 8601 2.5289950426667929e-03</internalNodes>
      <leafValues>
        2.1751147508621216e-01 -7.9205316305160522e-01</leafValues></_></weakClassifiers></stage5>
</opencv_storage>
