<?xml version="1.0"?>
<opencv_storage>
<cascade>
  <stageType>BOOST</stageType>
  <featureType>HAAR</featureType>
  <height>15</height>
  <width>40</width>
  <stageParams>
    <boostType>GAB</boostType>
    <minHitRate>9.9500000476837158e-01</minHitRate>
    <maxFalseAlarm>5.0000000000000000e-01</maxFalseAlarm>
    <weightTrimRate>9.4999999999999996e-01</weightTrimRate>
    <maxDepth>1</maxDepth>
    <maxWeakCount>100</maxWeakCount></stageParams>
  <featureParams>
    <maxCatCount>0</maxCatCount>
    <featSize>1</featSize>
    <mode>BASIC</mode></featureParams>
  <stageNum>10</stageNum>
  <stages>
    <!-- stage 0 -->
    <_>
      <maxWeakCount>2</maxWeakCount>
      <stageThreshold>2.2152327001094818e-01</stageThreshold>
      <weakClassifiers>
        <_>
          <internalNodes>
            0 -1 18 4.6782200224697590e-03</internalNodes>
          <leafValues>
            -5.5555558204650879e-01 8.3333331346511841e-01</leafValues></_>
        <_>
          <internalNodes>
            0 -1 5 1.9086801912635565e-03</internalNodes>
          <leafValues>
            -6.1181008815765381e-01 8.7439590692520142e-01</leafValues></_></weakClassifiers></_>
    <!-- stage 1 -->
    <_>
      <maxWeakCount>1</maxWeakCount>
      <stageThreshold>6.2264150381088257e-01</stageThreshold>
      <weakClassifiers>
        <_>
          <internalNodes>
            0 -1 4 1.1052293702960014e-03</internalNodes>
          <leafValues>
            6.2264150381088257e-01 -1.</leafValues></_></weakClassifiers></_>
    <!-- stage 2 -->
    <_>
      <maxWeakCount>1</maxWeakCount>
      <stageThreshold>5.3571426868438721e-01</stageThreshold>
      <weakClassifiers>
        <_>
          <internalNodes>
            0 -1 0 -2.3825354874134064e-03</internalNodes>
          <leafValues>
            -1. 5.3571426868438721e-01</leafValues></_></weakClassifiers></_>
    <!-- stage 3 -->
    <_>
      <maxWeakCount>1</maxWeakCount>
      <stageThreshold>6.2264150381088257e-01</stageThreshold>
      <weakClassifiers>
        <_>
          <internalNodes>
            0 -1 3 2.0602256990969181e-03</internalNodes>
          <leafValues>
            6.2264150381088257e-01 -1.</leafValues></_></weakClassifiers></_>
    <!-- stage 4 -->
    <_>
      <maxWeakCount>3</maxWeakCount>
      <stageThreshold>-7.7523255348205566e-01</stageThreshold>
      <weakClassifiers>
        <_>
          <internalNodes>
            0 -1 1 -1.8770423484966159e-03</internalNodes>
          <leafValues>
            -9.3103450536727905e-01 6.1538463830947876e-01</leafValues></_>
        <_>
          <internalNodes>
            0 -1 13 7.4691470945253968e-04</internalNodes>
          <leafValues>
            6.7727547883987427e-01 -8.0634033679962158e-01</leafValues></_>
        <_>
          <internalNodes>
            0 -1 20 -2.4480358697474003e-03</internalNodes>
          <leafValues>
            9.1860759258270264e-01 -5.8427685499191284e-01</leafValues></_></weakClassifiers></_>
    <!-- stage 5 -->
    <_>
      <maxWeakCount>3</maxWeakCount>
      <stageThreshold>3.8933357596397400e-01</stageThreshold>
      <weakClassifiers>
        <_>
          <internalNodes>
            0 -1 17 1.3483177172020078e-03</internalNodes>
          <leafValues>
            5.8490568399429321e-01 -9.2857140302658081e-01</leafValues></_>
        <_>
          <internalNodes>
            0 -1 8 4.1505217086523771e-04</internalNodes>
          <leafValues>
            5.8306139707565308e-01 -9.1081649065017700e-01</leafValues></_>
        <_>
          <internalNodes>
            0 -1 7 -1.3411047868430614e-02</internalNodes>
          <leafValues>
            7.3484361171722412e-01 -7.2178584337234497e-01</leafValues></_></weakClassifiers></_>
    <!-- stage 6 -->
    <_>
      <maxWeakCount>1</maxWeakCount>
      <stageThreshold>4.5762711763381958e-01</stageThreshold>
      <weakClassifiers>
        <_>
          <internalNodes>
            0 -1 12 -7.3662949725985527e-03</internalNodes>
          <leafValues>
            -1. 4.5762711763381958e-01</leafValues></_></weakClassifiers></_>
    <!-- stage 7 -->
    <_>
      <maxWeakCount>3</maxWeakCount>
      <stageThreshold>-5.0004638731479645e-02</stageThreshold>
      <weakClassifiers>
        <_>
          <internalNodes>
            0 -1 6 4.5228907838463783e-03</internalNodes>
          <leafValues>
            -4.0740740299224854e-01 1.</leafValues></_>
        <_>
          <internalNodes>
            0 -1 9 8.5695479065179825e-03</internalNodes>
          <leafValues>
            -5.1361817121505737e-01 1.</leafValues></_>
        <_>
          <internalNodes>
            0 -1 10 3.9873300120234489e-03</internalNodes>
          <leafValues>
            -5.0791978836059570e-01 8.7102097272872925e-01</leafValues></_></weakClassifiers></_>
    <!-- stage 8 -->
    <_>
      <maxWeakCount>3</maxWeakCount>
      <stageThreshold>-5.5543595552444458e-01</stageThreshold>
      <weakClassifiers>
        <_>
          <internalNodes>
            0 -1 2 -1.1086963117122650e-02</internalNodes>
          <leafValues>
            7.7777779102325439e-01 -5.1111114025115967e-01</leafValues></_>
        <_>
          <internalNodes>
            0 -1 14 7.6842773705720901e-04</internalNodes>
          <leafValues>
            5.2325391769409180e-01 -9.5254611968994141e-01</leafValues></_>
        <_>
          <internalNodes>
            0 -1 19 3.7395977415144444e-04</internalNodes>
          <leafValues>
            -5.6757873296737671e-01 8.7593513727188110e-01</leafValues></_></weakClassifiers></_>
    <!-- stage 9 -->
    <_>
      <maxWeakCount>3</maxWeakCount>
      <stageThreshold>2.8537607192993164e-01</stageThreshold>
      <weakClassifiers>
        <_>
          <internalNodes>
            0 -1 15 1.0171259054914117e-03</internalNodes>
          <leafValues>
            5.7692307233810425e-01 -8.6206895112991333e-01</leafValues></_>
        <_>
          <internalNodes>
            0 -1 16 -3.3490930218249559e-04</internalNodes>
          <leafValues>
            -8.2634198665618896e-01 5.5217975378036499e-01</leafValues></_>
        <_>
          <internalNodes>
            0 -1 11 -4.2580245062708855e-03</internalNodes>
          <leafValues>
            -8.4372675418853760e-01 6.3572716712951660e-01</leafValues></_></weakClassifiers></_></stages>
  <features>
    <_>
      <rects>
        <_>
          0 0 2 13 -1.</_>
        <_>
          1 0 1 13 2.</_></rects>
      <tilted>0</tilted></_>
    <_>
      <rects>
        <_>
          0 1 2 14 -1.</_>
        <_>
          0 1 1 7 2.</_>
        <_>
          1 8 1 7 2.</_></rects>
      <tilted>0</tilted></_>
    <_>
      <rects>
        <_>
          0 5 21 2 -1.</_>
        <_>
          7 5 7 2 3.</_></rects>
      <tilted>0</tilted></_>
    <_>
      <rects>
        <_>
          0 10 2 5 -1.</_>
        <_>
          1 10 1 5 2.</_></rects>
      <tilted>0</tilted></_>
    <_>
      <rects>
        <_>
          1 12 3 2 -1.</_>
        <_>
          2 12 1 2 3.</_></rects>
      <tilted>0</tilted></_>
    <_>
      <rects>
        <_>
          5 10 16 1 -1.</_>
        <_>
          13 10 8 1 2.</_></rects>
      <tilted>0</tilted></_>
    <_>
      <rects>
        <_>
          7 8 21 3 -1.</_>
        <_>
          7 9 21 1 3.</_></rects>
      <tilted>0</tilted></_>
    <_>
      <rects>
        <_>
          10 3 20 6 -1.</_>
        <_>
          10 6 20 3 2.</_></rects>
      <tilted>0</tilted></_>
    <_>
      <rects>
        <_>
          10 14 3 1 -1.</_>
        <_>
          11 14 1 1 3.</_></rects>
      <tilted>0</tilted></_>
    <_>
      <rects>
        <_>
          12 7 17 3 -1.</_>
        <_>
          12 8 17 1 3.</_></rects>
      <tilted>0</tilted></_>
    <_>
      <rects>
        <_>
          14 4 9 3 -1.</_>
        <_>
          14 5 9 1 3.</_></rects>
      <tilted>0</tilted></_>
    <_>
      <rects>
        <_>
          17 1 6 5 -1.</_>
        <_>
          19 1 2 5 3.</_></rects>
      <tilted>0</tilted></_>
    <_>
      <rects>
        <_>
          20 1 6 12 -1.</_>
        <_>
          22 1 2 12 3.</_></rects>
      <tilted>0</tilted></_>
    <_>
      <rects>
        <_>
          20 2 3 4 -1.</_>
        <_>
          21 2 1 4 3.</_></rects>
      <tilted>0</tilted></_>
    <_>
      <rects>
        <_>
          21 0 2 12 -1.</_>
        <_>
          22 0 1 12 2.</_></rects>
      <tilted>0</tilted></_>
    <_>
      <rects>
        <_>
          22 1 3 5 -1.</_>
        <_>
          23 1 1 5 3.</_></rects>
      <tilted>0</tilted></_>
    <_>
      <rects>
        <_>
          25 2 3 5 -1.</_>
        <_>
          26 2 1 5 3.</_></rects>
      <tilted>0</tilted></_>
    <_>
      <rects>
        <_>
          25 10 3 4 -1.</_>
        <_>
          26 10 1 4 3.</_></rects>
      <tilted>0</tilted></_>
    <_>
      <rects>
        <_>
          28 5 12 2 -1.</_>
        <_>
          34 5 6 2 2.</_></rects>
      <tilted>0</tilted></_>
    <_>
      <rects>
        <_>
          31 13 2 2 -1.</_>
        <_>
          31 14 2 1 2.</_></rects>
      <tilted>0</tilted></_>
    <_>
      <rects>
        <_>
          32 1 8 2 -1.</_>
        <_>
          32 2 8 1 2.</_></rects>
      <tilted>0</tilted></_></features></cascade>
</opencv_storage>
