<?xml version="1.0"?>
<opencv_storage>
<cascade>
  <stageType>BOOST</stageType>
  <featureType>HAAR</featureType>
  <height>15</height>
  <width>40</width>
  <stageParams>
    <boostType>GAB</boostType>
    <minHitRate>9.9500000476837158e-01</minHitRate>
    <maxFalseAlarm>5.0000000000000000e-01</maxFalseAlarm>
    <weightTrimRate>9.4999999999999996e-01</weightTrimRate>
    <maxDepth>1</maxDepth>
    <maxWeakCount>100</maxWeakCount></stageParams>
  <featureParams>
    <maxCatCount>0</maxCatCount>
    <featSize>1</featSize>
    <mode>BASIC</mode></featureParams>
  <stageNum>8</stageNum>
  <stages>
    <!-- stage 0 -->
    <_>
      <maxWeakCount>3</maxWeakCount>
      <stageThreshold>-1.3502993583679199e+00</stageThreshold>
      <weakClassifiers>
        <_>
          <internalNodes>
            0 -1 28 -7.2494689375162125e-03</internalNodes>
          <leafValues>
            6.4883351325988770e-01 -8.8677108287811279e-01</leafValues></_>
        <_>
          <internalNodes>
            0 -1 61 1.6563595272600651e-03</internalNodes>
          <leafValues>
            -7.7668344974517822e-01 4.2664822936058044e-01</leafValues></_>
        <_>
          <internalNodes>
            0 -1 29 -3.4906351938843727e-03</internalNodes>
          <leafValues>
            3.1315511465072632e-01 -9.4761127233505249e-01</leafValues></_></weakClassifiers></_>
    <!-- stage 1 -->
    <_>
      <maxWeakCount>5</maxWeakCount>
      <stageThreshold>-1.3671017885208130e+00</stageThreshold>
      <weakClassifiers>
        <_>
          <internalNodes>
            0 -1 61 1.6367830103263259e-03</internalNodes>
          <leafValues>
            -7.8940677642822266e-01 4.3407642841339111e-01</leafValues></_>
        <_>
          <internalNodes>
            0 -1 11 9.7006838768720627e-04</internalNodes>
          <leafValues>
            -8.5946977138519287e-01 3.0756765604019165e-01</leafValues></_>
        <_>
          <internalNodes>
            0 -1 34 -2.2691655904054642e-02</internalNodes>
          <leafValues>
            5.2728468179702759e-01 -5.2393805980682373e-01</leafValues></_>
        <_>
          <internalNodes>
            0 -1 55 8.6685679852962494e-03</internalNodes>
          <leafValues>
            -5.0107640027999878e-01 5.5376863479614258e-01</leafValues></_>
        <_>
          <internalNodes>
            0 -1 6 -2.3050096933729947e-04</internalNodes>
          <leafValues>
            2.5194424390792847e-01 -9.3487209081649780e-01</leafValues></_></weakClassifiers></_>
    <!-- stage 2 -->
    <_>
      <maxWeakCount>7</maxWeakCount>
      <stageThreshold>-1.2867696285247803e+00</stageThreshold>
      <weakClassifiers>
        <_>
          <internalNodes>
            0 -1 2 -6.8680117838084698e-03</internalNodes>
          <leafValues>
            3.6562260985374451e-01 -7.6161617040634155e-01</leafValues></_>
        <_>
          <internalNodes>
            0 -1 38 4.3151839636266232e-03</internalNodes>
          <leafValues>
            -5.2415537834167480e-01 6.0133165121078491e-01</leafValues></_>
        <_>
          <internalNodes>
            0 -1 31 1.0395690333098173e-04</internalNodes>
          <leafValues>
            -8.7194478511810303e-01 2.6926338672637939e-01</leafValues></_>
        <_>
          <internalNodes>
            0 -1 43 -1.3293805532157421e-03</internalNodes>
          <leafValues>
            3.4940290451049805e-01 -6.1660867929458618e-01</leafValues></_>
        <_>
          <internalNodes>
            0 -1 54 3.3467151224613190e-03</internalNodes>
          <leafValues>
            -5.5009639263153076e-01 3.4904786944389343e-01</leafValues></_>
        <_>
          <internalNodes>
            0 -1 40 1.9334519747644663e-03</internalNodes>
          <leafValues>
            2.9994034767150879e-01 -8.0605024099349976e-01</leafValues></_>
        <_>
          <internalNodes>
            0 -1 5 2.4315243959426880e-01</internalNodes>
          <leafValues>
            -2.6143643260002136e-01 8.1731909513473511e-01</leafValues></_></weakClassifiers></_>
    <!-- stage 3 -->
    <_>
      <maxWeakCount>9</maxWeakCount>
      <stageThreshold>-1.1271104812622070e+00</stageThreshold>
      <weakClassifiers>
        <_>
          <internalNodes>
            0 -1 62 5.8914092369377613e-04</internalNodes>
          <leafValues>
            -7.4509263038635254e-01 2.2958147525787354e-01</leafValues></_>
        <_>
          <internalNodes>
            0 -1 36 -2.6940408861264586e-04</internalNodes>
          <leafValues>
            1.8945701420307159e-01 -8.5981333255767822e-01</leafValues></_>
        <_>
          <internalNodes>
            0 -1 13 -5.1193274557590485e-03</internalNodes>
          <leafValues>
            2.0688858628273010e-01 -8.6560660600662231e-01</leafValues></_>
        <_>
          <internalNodes>
            0 -1 33 3.5324480850249529e-03</internalNodes>
          <leafValues>
            -3.7041631340980530e-01 5.2468168735504150e-01</leafValues></_>
        <_>
          <internalNodes>
            0 -1 53 -9.4317058101296425e-03</internalNodes>
          <leafValues>
            -7.3880499601364136e-01 2.6339724659919739e-01</leafValues></_>
        <_>
          <internalNodes>
            0 -1 21 -2.1434229612350464e-01</internalNodes>
          <leafValues>
            6.9179970026016235e-01 -2.7330151200294495e-01</leafValues></_>
        <_>
          <internalNodes>
            0 -1 10 1.1655269190669060e-03</internalNodes>
          <leafValues>
            -5.8013063669204712e-01 3.0162599682807922e-01</leafValues></_>
        <_>
          <internalNodes>
            0 -1 4 5.7085085427388549e-04</internalNodes>
          <leafValues>
            1.9952630996704102e-01 -7.9805803298950195e-01</leafValues></_>
        <_>
          <internalNodes>
            0 -1 46 2.7273062150925398e-03</internalNodes>
          <leafValues>
            2.1040095388889313e-01 -6.3122075796127319e-01</leafValues></_></weakClassifiers></_>
    <!-- stage 4 -->
    <_>
      <maxWeakCount>9</maxWeakCount>
      <stageThreshold>-1.3895239830017090e+00</stageThreshold>
      <weakClassifiers>
        <_>
          <internalNodes>
            0 -1 25 3.9037927053868771e-03</internalNodes>
          <leafValues>
            -8.6820811033248901e-01 1.4907793700695038e-01</leafValues></_>
        <_>
          <internalNodes>
            0 -1 58 -2.1569055388681591e-04</internalNodes>
          <leafValues>
            3.1236094236373901e-01 -5.5517500638961792e-01</leafValues></_>
        <_>
          <internalNodes>
            0 -1 3 -4.0887929499149323e-03</internalNodes>
          <leafValues>
            2.5820279121398926e-01 -6.6561448574066162e-01</leafValues></_>
        <_>
          <internalNodes>
            0 -1 37 -5.1185814663767815e-03</internalNodes>
          <leafValues>
            5.1529473066329956e-01 -3.4618073701858521e-01</leafValues></_>
        <_>
          <internalNodes>
            0 -1 47 5.4875190835446119e-04</internalNodes>
          <leafValues>
            -3.3026993274688721e-01 4.4224572181701660e-01</leafValues></_>
        <_>
          <internalNodes>
            0 -1 39 5.9325003530830145e-04</internalNodes>
          <leafValues>
            1.9246473908424377e-01 -8.1580275297164917e-01</leafValues></_>
        <_>
          <internalNodes>
            0 -1 20 1.9912738353013992e-03</internalNodes>
          <leafValues>
            9.8278604447841644e-02 -8.2714277505874634e-01</leafValues></_>
        <_>
          <internalNodes>
            0 -1 27 -1.4455627650022507e-02</internalNodes>
          <leafValues>
            2.6853269338607788e-01 -4.7633725404739380e-01</leafValues></_>
        <_>
          <internalNodes>
            0 -1 14 2.2927515208721161e-01</internalNodes>
          <leafValues>
            -1.7651176452636719e-01 7.9501038789749146e-01</leafValues></_></weakClassifiers></_>
    <!-- stage 5 -->
    <_>
      <maxWeakCount>12</maxWeakCount>
      <stageThreshold>-1.4122248888015747e+00</stageThreshold>
      <weakClassifiers>
        <_>
          <internalNodes>
            0 -1 18 -4.8542805016040802e-02</internalNodes>
          <leafValues>
            8.3966743946075439e-01 -2.5912410020828247e-01</leafValues></_>
        <_>
          <internalNodes>
            0 -1 42 6.8044420331716537e-03</internalNodes>
          <leafValues>
            -3.8018953800201416e-01 5.1189994812011719e-01</leafValues></_>
        <_>
          <internalNodes>
            0 -1 59 -1.7173339147120714e-03</internalNodes>
          <leafValues>
            2.9571968317031860e-01 -5.3125500679016113e-01</leafValues></_>
        <_>
          <internalNodes>
            0 -1 40 4.7567184083163738e-03</internalNodes>
          <leafValues>
            1.5730108320713043e-01 -8.4927791357040405e-01</leafValues></_>
        <_>
          <internalNodes>
            0 -1 11 1.3830749958287925e-04</internalNodes>
          <leafValues>
            -8.3297169208526611e-01 1.7791253328323364e-01</leafValues></_>
        <_>
          <internalNodes>
            0 -1 0 5.8949450030922890e-03</internalNodes>
          <leafValues>
            -4.0781480073928833e-01 3.3059614896774292e-01</leafValues></_>
        <_>
          <internalNodes>
            0 -1 35 -2.8873956762254238e-04</internalNodes>
          <leafValues>
            1.6518585383892059e-01 -7.8982001543045044e-01</leafValues></_>
        <_>
          <internalNodes>
            0 -1 22 -1.6165538690984249e-03</internalNodes>
          <leafValues>
            -4.1273137927055359e-01 2.7913394570350647e-01</leafValues></_>
        <_>
          <internalNodes>
            0 -1 16 1.3311569578945637e-02</internalNodes>
          <leafValues>
            -2.4581980705261230e-01 5.9649491310119629e-01</leafValues></_>
        <_>
          <internalNodes>
            0 -1 7 6.0926955193281174e-03</internalNodes>
          <leafValues>
            1.8221780657768250e-01 -8.0294251441955566e-01</leafValues></_>
        <_>
          <internalNodes>
            0 -1 17 5.3847718983888626e-02</internalNodes>
          <leafValues>
            -2.0345138013362885e-01 6.7970865964889526e-01</leafValues></_>
        <_>
          <internalNodes>
            0 -1 1 -5.1076378673315048e-02</internalNodes>
          <leafValues>
            5.6273448467254639e-01 -2.0347592234611511e-01</leafValues></_></weakClassifiers></_>
    <!-- stage 6 -->
    <_>
      <maxWeakCount>10</maxWeakCount>
      <stageThreshold>-1.2105165719985962e+00</stageThreshold>
      <weakClassifiers>
        <_>
          <internalNodes>
            0 -1 12 1.6441964544355869e-03</internalNodes>
          <leafValues>
            -7.7074486017227173e-01 1.1856344342231750e-01</leafValues></_>
        <_>
          <internalNodes>
            0 -1 15 -4.6870834194123745e-03</internalNodes>
          <leafValues>
            4.6227166056632996e-01 -3.0362561345100403e-01</leafValues></_>
        <_>
          <internalNodes>
            0 -1 60 -6.2675558729097247e-04</internalNodes>
          <leafValues>
            2.3328427970409393e-01 -5.6854832172393799e-01</leafValues></_>
        <_>
          <internalNodes>
            0 -1 44 -1.1093696812167764e-03</internalNodes>
          <leafValues>
            -8.5627627372741699e-01 1.6006720066070557e-01</leafValues></_>
        <_>
          <internalNodes>
            0 -1 52 7.3009859770536423e-03</internalNodes>
          <leafValues>
            -2.5560349225997925e-01 5.0883358716964722e-01</leafValues></_>
        <_>
          <internalNodes>
            0 -1 49 -7.4544870585668832e-05</internalNodes>
          <leafValues>
            2.6052492856979370e-01 -4.5051819086074829e-01</leafValues></_>
        <_>
          <internalNodes>
            0 -1 26 9.7782700322568417e-05</internalNodes>
          <leafValues>
            -6.6949963569641113e-01 1.7728653550148010e-01</leafValues></_>
        <_>
          <internalNodes>
            0 -1 30 -1.9549736753106117e-03</internalNodes>
          <leafValues>
            3.2349973917007446e-01 -3.5327857732772827e-01</leafValues></_>
        <_>
          <internalNodes>
            0 -1 9 -2.6547774905338883e-04</internalNodes>
          <leafValues>
            2.4441328644752502e-01 -4.7083750367164612e-01</leafValues></_>
        <_>
          <internalNodes>
            0 -1 63 4.7399178147315979e-03</internalNodes>
          <leafValues>
            -3.5075083374977112e-01 3.1234857439994812e-01</leafValues></_></weakClassifiers></_>
    <!-- stage 7 -->
    <_>
      <maxWeakCount>14</maxWeakCount>
      <stageThreshold>-1.4383108615875244e+00</stageThreshold>
      <weakClassifiers>
        <_>
          <internalNodes>
            0 -1 18 -5.0207339227199554e-02</internalNodes>
          <leafValues>
            7.1963679790496826e-01 -2.4550768733024597e-01</leafValues></_>
        <_>
          <internalNodes>
            0 -1 24 -2.8046351508237422e-04</internalNodes>
          <leafValues>
            -4.0279331803321838e-01 3.8374778628349304e-01</leafValues></_>
        <_>
          <internalNodes>
            0 -1 57 -2.0223760511726141e-03</internalNodes>
          <leafValues>
            2.3074679076671600e-01 -4.5791605114936829e-01</leafValues></_>
        <_>
          <internalNodes>
            0 -1 23 -8.6537119932472706e-04</internalNodes>
          <leafValues>
            1.2331403791904449e-01 -8.2309907674789429e-01</leafValues></_>
        <_>
          <internalNodes>
            0 -1 19 -2.3784356191754341e-02</internalNodes>
          <leafValues>
            -8.7914496660232544e-01 1.4601685106754303e-01</leafValues></_>
        <_>
          <internalNodes>
            0 -1 41 -2.4259861675091088e-05</internalNodes>
          <leafValues>
            1.1893688142299652e-01 -7.6846200227737427e-01</leafValues></_>
        <_>
          <internalNodes>
            0 -1 32 -2.7239802479743958e-01</internalNodes>
          <leafValues>
            6.0767018795013428e-01 -1.9176182150840759e-01</leafValues></_>
        <_>
          <internalNodes>
            0 -1 8 2.5137867778539658e-03</internalNodes>
          <leafValues>
            -5.1278352737426758e-01 2.3374032974243164e-01</leafValues></_>
        <_>
          <internalNodes>
            0 -1 4 7.5307820225134492e-04</internalNodes>
          <leafValues>
            1.1876434087753296e-01 -8.3694982528686523e-01</leafValues></_>
        <_>
          <internalNodes>
            0 -1 48 -1.7687159124761820e-03</internalNodes>
          <leafValues>
            4.5067903399467468e-01 -2.7835726737976074e-01</leafValues></_>
        <_>
          <internalNodes>
            0 -1 50 2.8759019915014505e-04</internalNodes>
          <leafValues>
            -2.4044863879680634e-01 4.9239322543144226e-01</leafValues></_>
        <_>
          <internalNodes>
            0 -1 56 2.5146356783807278e-03</internalNodes>
          <leafValues>
            -6.9506448507308960e-01 1.3640397787094116e-01</leafValues></_>
        <_>
          <internalNodes>
            0 -1 51 -1.6537480056285858e-02</internalNodes>
          <leafValues>
            -8.0129462480545044e-01 1.0586288571357727e-01</leafValues></_>
        <_>
          <internalNodes>
            0 -1 45 -2.2795326076447964e-03</internalNodes>
          <leafValues>
            4.1122025251388550e-01 -2.5727114081382751e-01</leafValues></_></weakClassifiers></_></stages>
  <features>
    <_>
      <rects>
        <_>
          0 4 6 7 -1.</_>
        <_>
          2 4 2 7 3.</_></rects>
      <tilted>0</tilted></_>
    <_>
      <rects>
        <_>
          2 3 24 4 -1.</_>
        <_>
          2 5 24 2 2.</_></rects>
      <tilted>0</tilted></_>
    <_>
      <rects>
        <_>
          3 4 12 7 -1.</_>
        <_>
          7 4 4 7 3.</_></rects>
      <tilted>0</tilted></_>
    <_>
      <rects>
        <_>
          3 5 12 7 -1.</_>
        <_>
          7 5 4 7 3.</_></rects>
      <tilted>0</tilted></_>
    <_>
      <rects>
        <_>
          3 7 18 1 -1.</_>
        <_>
          12 7 9 1 2.</_></rects>
      <tilted>0</tilted></_>
    <_>
      <rects>
        <_>
          4 0 28 15 -1.</_>
        <_>
          4 5 28 5 3.</_></rects>
      <tilted>0</tilted></_>
    <_>
      <rects>
        <_>
          4 6 24 3 -1.</_>
        <_>
          16 6 12 3 2.</_></rects>
      <tilted>0</tilted></_>
    <_>
      <rects>
        <_>
          4 7 14 2 -1.</_>
        <_>
          11 7 7 2 2.</_></rects>
      <tilted>0</tilted></_>
    <_>
      <rects>
        <_>
          7 4 8 4 -1.</_>
        <_>
          11 4 4 4 2.</_></rects>
      <tilted>0</tilted></_>
    <_>
      <rects>
        <_>
          7 5 2 5 -1.</_>
        <_>
          8 5 1 5 2.</_></rects>
      <tilted>0</tilted></_>
    <_>
      <rects>
        <_>
          8 5 6 2 -1.</_>
        <_>
          11 5 3 2 2.</_></rects>
      <tilted>0</tilted></_>
    <_>
      <rects>
        <_>
          8 7 9 2 -1.</_>
        <_>
          11 7 3 2 3.</_></rects>
      <tilted>0</tilted></_>
    <_>
      <rects>
        <_>
          8 7 12 3 -1.</_>
        <_>
          12 7 4 3 3.</_></rects>
      <tilted>0</tilted></_>
    <_>
      <rects>
        <_>
          10 6 14 4 -1.</_>
        <_>
          17 6 7 4 2.</_></rects>
      <tilted>0</tilted></_>
    <_>
      <rects>
        <_>
          11 0 27 15 -1.</_>
        <_>
          11 5 27 5 3.</_></rects>
      <tilted>0</tilted></_>
    <_>
      <rects>
        <_>
          11 4 8 2 -1.</_>
        <_>
          11 4 4 1 2.</_>
        <_>
          15 5 4 1 2.</_></rects>
      <tilted>0</tilted></_>
    <_>
      <rects>
        <_>
          11 6 12 4 -1.</_>
        <_>
          15 6 4 4 3.</_></rects>
      <tilted>0</tilted></_>
    <_>
      <rects>
        <_>
          12 0 3 15 -1.</_>
        <_>
          12 5 3 5 3.</_></rects>
      <tilted>0</tilted></_>
    <_>
      <rects>
        <_>
          13 6 9 3 -1.</_>
        <_>
          16 6 3 3 3.</_></rects>
      <tilted>0</tilted></_>
    <_>
      <rects>
        <_>
          13 6 15 4 -1.</_>
        <_>
          13 8 15 2 2.</_></rects>
      <tilted>0</tilted></_>
    <_>
      <rects>
        <_>
          13 7 15 2 -1.</_>
        <_>
          13 8 15 1 2.</_></rects>
      <tilted>0</tilted></_>
    <_>
      <rects>
        <_>
          14 2 14 12 -1.</_>
        <_>
          14 6 14 4 3.</_></rects>
      <tilted>0</tilted></_>
    <_>
      <rects>
        <_>
          14 6 12 1 -1.</_>
        <_>
          20 6 6 1 2.</_></rects>
      <tilted>0</tilted></_>
    <_>
      <rects>
        <_>
          14 6 16 2 -1.</_>
        <_>
          14 7 16 1 2.</_></rects>
      <tilted>0</tilted></_>
    <_>
      <rects>
        <_>
          14 7 6 2 -1.</_>
        <_>
          16 7 2 2 3.</_></rects>
      <tilted>0</tilted></_>
    <_>
      <rects>
        <_>
          14 7 24 2 -1.</_>
        <_>
          26 7 12 2 2.</_></rects>
      <tilted>0</tilted></_>
    <_>
      <rects>
        <_>
          14 8 7 2 -1.</_>
        <_>
          14 9 7 1 2.</_></rects>
      <tilted>0</tilted></_>
    <_>
      <rects>
        <_>
          15 4 12 6 -1.</_>
        <_>
          15 6 12 2 3.</_></rects>
      <tilted>0</tilted></_>
    <_>
      <rects>
        <_>
          15 5 5 6 -1.</_>
        <_>
          15 7 5 2 3.</_></rects>
      <tilted>0</tilted></_>
    <_>
      <rects>
        <_>
          15 5 9 4 -1.</_>
        <_>
          15 7 9 2 2.</_></rects>
      <tilted>0</tilted></_>
    <_>
      <rects>
        <_>
          15 8 5 3 -1.</_>
        <_>
          15 9 5 1 3.</_></rects>
      <tilted>0</tilted></_>
    <_>
      <rects>
        <_>
          15 8 10 2 -1.</_>
        <_>
          15 9 10 1 2.</_></rects>
      <tilted>0</tilted></_>
    <_>
      <rects>
        <_>
          16 0 10 15 -1.</_>
        <_>
          16 5 10 5 3.</_></rects>
      <tilted>0</tilted></_>
    <_>
      <rects>
        <_>
          16 3 3 3 -1.</_>
        <_>
          16 4 3 1 3.</_></rects>
      <tilted>0</tilted></_>
    <_>
      <rects>
        <_>
          16 4 3 9 -1.</_>
        <_>
          16 7 3 3 3.</_></rects>
      <tilted>0</tilted></_>
    <_>
      <rects>
        <_>
          16 5 1 4 -1.</_>
        <_>
          16 7 1 2 2.</_></rects>
      <tilted>0</tilted></_>
    <_>
      <rects>
        <_>
          16 7 2 3 -1.</_>
        <_>
          16 8 2 1 3.</_></rects>
      <tilted>0</tilted></_>
    <_>
      <rects>
        <_>
          16 8 6 3 -1.</_>
        <_>
          16 9 6 1 3.</_></rects>
      <tilted>0</tilted></_>
    <_>
      <rects>
        <_>
          16 9 5 2 -1.</_>
        <_>
          16 10 5 1 2.</_></rects>
      <tilted>0</tilted></_>
    <_>
      <rects>
        <_>
          17 6 4 3 -1.</_>
        <_>
          17 7 4 1 3.</_></rects>
      <tilted>0</tilted></_>
    <_>
      <rects>
        <_>
          17 6 18 3 -1.</_>
        <_>
          23 6 6 3 3.</_></rects>
      <tilted>0</tilted></_>
    <_>
      <rects>
        <_>
          17 7 1 3 -1.</_>
        <_>
          17 8 1 1 3.</_></rects>
      <tilted>0</tilted></_>
    <_>
      <rects>
        <_>
          17 9 6 2 -1.</_>
        <_>
          17 10 6 1 2.</_></rects>
      <tilted>0</tilted></_>
    <_>
      <rects>
        <_>
          18 4 1 4 -1.</_>
        <_>
          18 6 1 2 2.</_></rects>
      <tilted>0</tilted></_>
    <_>
      <rects>
        <_>
          18 8 12 1 -1.</_>
        <_>
          24 8 6 1 2.</_></rects>
      <tilted>0</tilted></_>
    <_>
      <rects>
        <_>
          18 10 5 2 -1.</_>
        <_>
          18 11 5 1 2.</_></rects>
      <tilted>0</tilted></_>
    <_>
      <rects>
        <_>
          19 5 8 4 -1.</_>
        <_>
          23 5 4 4 2.</_></rects>
      <tilted>0</tilted></_>
    <_>
      <rects>
        <_>
          19 7 3 1 -1.</_>
        <_>
          20 7 1 1 3.</_></rects>
      <tilted>0</tilted></_>
    <_>
      <rects>
        <_>
          19 7 4 1 -1.</_>
        <_>
          21 7 2 1 2.</_></rects>
      <tilted>0</tilted></_>
    <_>
      <rects>
        <_>
          19 7 8 1 -1.</_>
        <_>
          23 7 4 1 2.</_></rects>
      <tilted>0</tilted></_>
    <_>
      <rects>
        <_>
          20 5 2 2 -1.</_>
        <_>
          20 6 2 1 2.</_></rects>
      <tilted>0</tilted></_>
    <_>
      <rects>
        <_>
          20 6 15 2 -1.</_>
        <_>
          25 6 5 2 3.</_></rects>
      <tilted>0</tilted></_>
    <_>
      <rects>
        <_>
          21 3 5 3 -1.</_>
        <_>
          21 4 5 1 3.</_></rects>
      <tilted>0</tilted></_>
    <_>
      <rects>
        <_>
          22 5 12 5 -1.</_>
        <_>
          26 5 4 5 3.</_></rects>
      <tilted>0</tilted></_>
    <_>
      <rects>
        <_>
          23 5 9 5 -1.</_>
        <_>
          26 5 3 5 3.</_></rects>
      <tilted>0</tilted></_>
    <_>
      <rects>
        <_>
          23 6 8 3 -1.</_>
        <_>
          27 6 4 3 2.</_></rects>
      <tilted>0</tilted></_>
    <_>
      <rects>
        <_>
          24 5 12 5 -1.</_>
        <_>
          30 5 6 5 2.</_></rects>
      <tilted>0</tilted></_>
    <_>
      <rects>
        <_>
          27 4 6 6 -1.</_>
        <_>
          29 4 2 6 3.</_></rects>
      <tilted>0</tilted></_>
    <_>
      <rects>
        <_>
          28 5 2 4 -1.</_>
        <_>
          29 5 1 4 2.</_></rects>
      <tilted>0</tilted></_>
    <_>
      <rects>
        <_>
          28 6 6 2 -1.</_>
        <_>
          30 6 2 2 3.</_></rects>
      <tilted>0</tilted></_>
    <_>
      <rects>
        <_>
          28 7 6 1 -1.</_>
        <_>
          30 7 2 1 3.</_></rects>
      <tilted>0</tilted></_>
    <_>
      <rects>
        <_>
          30 6 4 3 -1.</_>
        <_>
          32 6 2 3 2.</_></rects>
      <tilted>0</tilted></_>
    <_>
      <rects>
        <_>
          30 7 4 1 -1.</_>
        <_>
          32 7 2 1 2.</_></rects>
      <tilted>0</tilted></_>
    <_>
      <rects>
        <_>
          34 4 6 7 -1.</_>
        <_>
          36 4 2 7 3.</_></rects>
      <tilted>0</tilted></_></features></cascade>
</opencv_storage>
