<?xml version="1.0"?>
<opencv_storage>
<stage3>
  <maxWeakCount>9</maxWeakCount>
  <stageThreshold>-1.1271104812622070e+00</stageThreshold>
  <weakClassifiers>
    <_>
      <internalNodes>
        0 -1 166573 5.8914092369377613e-04</internalNodes>
      <leafValues>
        -7.4509263038635254e-01 2.2958147525787354e-01</leafValues></_>
    <_>
      <internalNodes>
        0 -1 116309 -2.6940408861264586e-04</internalNodes>
      <leafValues>
        1.8945701420307159e-01 -8.5981333255767822e-01</leafValues></_>
    <_>
      <internalNodes>
        0 -1 81279 -5.1193274557590485e-03</internalNodes>
      <leafValues>
        2.0688858628273010e-01 -8.6560660600662231e-01</leafValues></_>
    <_>
      <internalNodes>
        0 -1 114491 3.5324480850249529e-03</internalNodes>
      <leafValues>
        -3.7041631340980530e-01 5.2468168735504150e-01</leafValues></_>
    <_>
      <internalNodes>
        0 -1 142575 -9.4317058101296425e-03</internalNodes>
      <leafValues>
        -7.3880499601364136e-01 2.6339724659919739e-01</leafValues></_>
    <_>
      <internalNodes>
        0 -1 103452 -2.1434229612350464e-01</internalNodes>
      <leafValues>
        6.9179970026016235e-01 -2.7330151200294495e-01</leafValues></_>
    <_>
      <internalNodes>
        0 -1 67205 1.1655269190669060e-03</internalNodes>
      <leafValues>
        -5.8013063669204712e-01 3.0162599682807922e-01</leafValues></_>
    <_>
      <internalNodes>
        0 -1 31305 5.7085085427388549e-04</internalNodes>
      <leafValues>
        1.9952630996704102e-01 -7.9805803298950195e-01</leafValues></_>
    <_>
      <internalNodes>
        0 -1 130039 2.7273062150925398e-03</internalNodes>
      <leafValues>
        2.1040095388889313e-01 -6.3122075796127319e-01</leafValues></_></weakClassifiers></stage3>
</opencv_storage>
